<?xml version="1.0"?>
<opencv_storage>
<cascade>
  <stageType>BOOST</stageType>
  <featureType>HAAR</featureType>
  <height>36</height>
  <width>36</width>
  <stageParams>
    <boostType>GAB</boostType>
    <minHitRate>9.9500000476837158e-01</minHitRate>
    <maxFalseAlarm>5.0000000000000000e-01</maxFalseAlarm>
    <weightTrimRate>9.4999998807907104e-01</weightTrimRate>
    <maxDepth>1</maxDepth>
    <maxWeakCount>100</maxWeakCount></stageParams>
  <featureParams>
    <maxCatCount>0</maxCatCount>
    <featSize>1</featSize>
    <mode>BASIC</mode></featureParams>
  <stageNum>19</stageNum>
  <stages>
    <!-- stage 0 -->
    <_>
      <maxWeakCount>2</maxWeakCount>
      <stageThreshold>-3.1056842207908630e-01</stageThreshold>
      <weakClassifiers>
        <_>
          <internalNodes>
            0 -1 2 -2.9048946499824524e-01</internalNodes>
          <leafValues>
            8.2271468639373779e-01 -9.8876404762268066e-01</leafValues></_>
        <_>
          <internalNodes>
            0 -1 13 -1.2667442671954632e-02</internalNodes>
          <leafValues>
            6.7819559574127197e-01 -9.8861253261566162e-01</leafValues></_></weakClassifiers></_>
    <!-- stage 1 -->
    <_>
      <maxWeakCount>2</maxWeakCount>
      <stageThreshold>-5.4810482263565063e-01</stageThreshold>
      <weakClassifiers>
        <_>
          <internalNodes>
            0 -1 4 -3.5543826222419739e-01</internalNodes>
          <leafValues>
            4.9065420031547546e-01 -9.5658916234970093e-01</leafValues></_>
        <_>
          <internalNodes>
            0 -1 36 -1.1732913553714752e-03</internalNodes>
          <leafValues>
            4.0848430991172791e-01 -9.4536745548248291e-01</leafValues></_></weakClassifiers></_>
    <!-- stage 2 -->
    <_>
      <maxWeakCount>4</maxWeakCount>
      <stageThreshold>-8.7747251987457275e-01</stageThreshold>
      <weakClassifiers>
        <_>
          <internalNodes>
            0 -1 83 1.5025157481431961e-02</internalNodes>
          <leafValues>
            -7.8413522243499756e-01 6.4473682641983032e-01</leafValues></_>
        <_>
          <internalNodes>
            0 -1 5 -1.1160294525325298e-03</internalNodes>
          <leafValues>
            5.3778958320617676e-01 -8.7559646368026733e-01</leafValues></_>
        <_>
          <internalNodes>
            0 -1 7 -9.7547143697738647e-02</internalNodes>
          <leafValues>
            5.1735198497772217e-01 -9.5736467838287354e-01</leafValues></_>
        <_>
          <internalNodes>
            0 -1 68 -1.5413544606417418e-03</internalNodes>
          <leafValues>
            3.2623785734176636e-01 -9.2485356330871582e-01</leafValues></_></weakClassifiers></_>
    <!-- stage 3 -->
    <_>
      <maxWeakCount>5</maxWeakCount>
      <stageThreshold>-9.7187739610671997e-01</stageThreshold>
      <weakClassifiers>
        <_>
          <internalNodes>
            0 -1 39 2.3047205060720444e-02</internalNodes>
          <leafValues>
            -6.1904764175415039e-01 8.9411765336990356e-01</leafValues></_>
        <_>
          <internalNodes>
            0 -1 29 -6.9694414734840393e-02</internalNodes>
          <leafValues>
            4.7081160545349121e-01 -8.2908236980438232e-01</leafValues></_>
        <_>
          <internalNodes>
            0 -1 6 -4.6870380640029907e-02</internalNodes>
          <leafValues>
            5.6183874607086182e-01 -6.1847662925720215e-01</leafValues></_>
        <_>
          <internalNodes>
            0 -1 82 4.4094014912843704e-02</internalNodes>
          <leafValues>
            -4.7212615609169006e-01 6.6347450017929077e-01</leafValues></_>
        <_>
          <internalNodes>
            0 -1 23 1.5632972121238708e-02</internalNodes>
          <leafValues>
            -7.3523151874542236e-01 3.8654002547264099e-01</leafValues></_></weakClassifiers></_>
    <!-- stage 4 -->
    <_>
      <maxWeakCount>5</maxWeakCount>
      <stageThreshold>-1.3957428932189941e+00</stageThreshold>
      <weakClassifiers>
        <_>
          <internalNodes>
            0 -1 60 2.7329931035637856e-02</internalNodes>
          <leafValues>
            -5.9219086170196533e-01 9.2052978277206421e-01</leafValues></_>
        <_>
          <internalNodes>
            0 -1 27 -1.8431304488331079e-03</internalNodes>
          <leafValues>
            3.3733126521110535e-01 -9.6847742795944214e-01</leafValues></_>
        <_>
          <internalNodes>
            0 -1 8 -5.4053706116974354e-04</internalNodes>
          <leafValues>
            4.4370487332344055e-01 -6.3687229156494141e-01</leafValues></_>
        <_>
          <internalNodes>
            0 -1 18 -1.0582526447251439e-03</internalNodes>
          <leafValues>
            3.5863691568374634e-01 -7.7409172058105469e-01</leafValues></_>
        <_>
          <internalNodes>
            0 -1 1 -1.6331723332405090e-01</internalNodes>
          <leafValues>
            2.8469055891036987e-01 -8.6264789104461670e-01</leafValues></_></weakClassifiers></_>
    <!-- stage 5 -->
    <_>
      <maxWeakCount>4</maxWeakCount>
      <stageThreshold>-7.0097821950912476e-01</stageThreshold>
      <weakClassifiers>
        <_>
          <internalNodes>
            0 -1 84 2.7511090040206909e-02</internalNodes>
          <leafValues>
            -6.8982630968093872e-01 5.5805242061614990e-01</leafValues></_>
        <_>
          <internalNodes>
            0 -1 10 -8.2373291254043579e-02</internalNodes>
          <leafValues>
            2.6833423972129822e-01 -9.2382037639617920e-01</leafValues></_>
        <_>
          <internalNodes>
            0 -1 0 -2.3378219455480576e-02</internalNodes>
          <leafValues>
            5.9449195861816406e-01 -4.9373355507850647e-01</leafValues></_>
        <_>
          <internalNodes>
            0 -1 70 6.9724756758660078e-04</internalNodes>
          <leafValues>
            3.2429948449134827e-01 -8.7397813796997070e-01</leafValues></_></weakClassifiers></_>
    <!-- stage 6 -->
    <_>
      <maxWeakCount>2</maxWeakCount>
      <stageThreshold>-3.6847290396690369e-01</stageThreshold>
      <weakClassifiers>
        <_>
          <internalNodes>
            0 -1 57 -5.1438068039715290e-03</internalNodes>
          <leafValues>
            5.9839355945587158e-01 -6.7475730180740356e-01</leafValues></_>
        <_>
          <internalNodes>
            0 -1 31 -1.2294325977563858e-02</internalNodes>
          <leafValues>
            -9.6686649322509766e-01 3.0705666542053223e-01</leafValues></_></weakClassifiers></_>
    <!-- stage 7 -->
    <_>
      <maxWeakCount>4</maxWeakCount>
      <stageThreshold>-9.9146664142608643e-01</stageThreshold>
      <weakClassifiers>
        <_>
          <internalNodes>
            0 -1 53 8.8855214416980743e-03</internalNodes>
          <leafValues>
            -6.9154226779937744e-01 5.5390334129333496e-01</leafValues></_>
        <_>
          <internalNodes>
            0 -1 37 -4.6360659325728193e-05</internalNodes>
          <leafValues>
            3.0800852179527283e-01 -8.8920271396636963e-01</leafValues></_>
        <_>
          <internalNodes>
            0 -1 15 5.4268667008727789e-04</internalNodes>
          <leafValues>
            -6.9547128677368164e-01 3.0088669061660767e-01</leafValues></_>
        <_>
          <internalNodes>
            0 -1 54 -8.9640408987179399e-05</internalNodes>
          <leafValues>
            3.1162732839584351e-01 -9.0881955623626709e-01</leafValues></_></weakClassifiers></_>
    <!-- stage 8 -->
    <_>
      <maxWeakCount>5</maxWeakCount>
      <stageThreshold>-9.0643846988677979e-01</stageThreshold>
      <weakClassifiers>
        <_>
          <internalNodes>
            0 -1 33 3.8683734834194183e-02</internalNodes>
          <leafValues>
            -6.0266369581222534e-01 7.9069769382476807e-01</leafValues></_>
        <_>
          <internalNodes>
            0 -1 47 7.8041870146989822e-03</internalNodes>
          <leafValues>
            -4.8573070764541626e-01 5.9562104940414429e-01</leafValues></_>
        <_>
          <internalNodes>
            0 -1 58 -1.4457957819104195e-02</internalNodes>
          <leafValues>
            6.4286452531814575e-01 -4.4584831595420837e-01</leafValues></_>
        <_>
          <internalNodes>
            0 -1 22 -3.5401716828346252e-02</internalNodes>
          <leafValues>
            -8.8985306024551392e-01 3.6651062965393066e-01</leafValues></_>
        <_>
          <internalNodes>
            0 -1 50 3.3840024843811989e-04</internalNodes>
          <leafValues>
            2.6129364967346191e-01 -9.9047416448593140e-01</leafValues></_></weakClassifiers></_>
    <!-- stage 9 -->
    <_>
      <maxWeakCount>5</maxWeakCount>
      <stageThreshold>-1.5368967056274414e+00</stageThreshold>
      <weakClassifiers>
        <_>
          <internalNodes>
            0 -1 73 -4.4112252071499825e-03</internalNodes>
          <leafValues>
            4.4408944249153137e-01 -7.1842104196548462e-01</leafValues></_>
        <_>
          <internalNodes>
            0 -1 38 -6.1794910579919815e-03</internalNodes>
          <leafValues>
            6.2326896190643311e-01 -4.6731179952621460e-01</leafValues></_>
        <_>
          <internalNodes>
            0 -1 41 2.6047496125102043e-02</internalNodes>
          <leafValues>
            -9.2257171869277954e-01 3.1216692924499512e-01</leafValues></_>
        <_>
          <internalNodes>
            0 -1 56 -5.9467722894623876e-04</internalNodes>
          <leafValues>
            2.4717788398265839e-01 -8.5836017131805420e-01</leafValues></_>
        <_>
          <internalNodes>
            0 -1 12 -2.0085047185420990e-01</internalNodes>
          <leafValues>
            -1. 1.9502936303615570e-01</leafValues></_></weakClassifiers></_>
    <!-- stage 10 -->
    <_>
      <maxWeakCount>4</maxWeakCount>
      <stageThreshold>-1.0874084234237671e+00</stageThreshold>
      <weakClassifiers>
        <_>
          <internalNodes>
            0 -1 78 -2.3464574478566647e-03</internalNodes>
          <leafValues>
            3.7026238441467285e-01 -7.3150682449340820e-01</leafValues></_>
        <_>
          <internalNodes>
            0 -1 64 -4.1782427579164505e-03</internalNodes>
          <leafValues>
            2.8291079401969910e-01 -8.4769642353057861e-01</leafValues></_>
        <_>
          <internalNodes>
            0 -1 26 -1.6605749726295471e-02</internalNodes>
          <leafValues>
            2.3801077902317047e-01 -8.4994429349899292e-01</leafValues></_>
        <_>
          <internalNodes>
            0 -1 43 -9.0299441944807768e-04</internalNodes>
          <leafValues>
            -8.8975220918655396e-01 2.5378406047821045e-01</leafValues></_></weakClassifiers></_>
    <!-- stage 11 -->
    <_>
      <maxWeakCount>5</maxWeakCount>
      <stageThreshold>-9.3854820728302002e-01</stageThreshold>
      <weakClassifiers>
        <_>
          <internalNodes>
            0 -1 40 4.1793733835220337e-02</internalNodes>
          <leafValues>
            -5.7266813516616821e-01 8.0132448673248291e-01</leafValues></_>
        <_>
          <internalNodes>
            0 -1 48 -2.1084200852783397e-05</internalNodes>
          <leafValues>
            2.9549375176429749e-01 -7.5669956207275391e-01</leafValues></_>
        <_>
          <internalNodes>
            0 -1 74 -4.9548391252756119e-03</internalNodes>
          <leafValues>
            5.2881234884262085e-01 -4.7592368721961975e-01</leafValues></_>
        <_>
          <internalNodes>
            0 -1 59 7.5361556373536587e-03</internalNodes>
          <leafValues>
            -4.0984714031219482e-01 7.3352456092834473e-01</leafValues></_>
        <_>
          <internalNodes>
            0 -1 55 -1.5173589345067739e-03</internalNodes>
          <leafValues>
            -9.1897469758987427e-01 4.2363402247428894e-01</leafValues></_></weakClassifiers></_>
    <!-- stage 12 -->
    <_>
      <maxWeakCount>6</maxWeakCount>
      <stageThreshold>-1.6852216720581055e+00</stageThreshold>
      <weakClassifiers>
        <_>
          <internalNodes>
            0 -1 46 -2.1887445822358131e-02</internalNodes>
          <leafValues>
            6.5656566619873047e-01 -6.1371427774429321e-01</leafValues></_>
        <_>
          <internalNodes>
            0 -1 61 -6.1769830062985420e-03</internalNodes>
          <leafValues>
            8.0405175685882568e-01 -3.8814046978950500e-01</leafValues></_>
        <_>
          <internalNodes>
            0 -1 3 -1.2553579872474074e-03</internalNodes>
          <leafValues>
            4.4572430849075317e-01 -6.5938973426818848e-01</leafValues></_>
        <_>
          <internalNodes>
            0 -1 11 -5.2495487034320831e-03</internalNodes>
          <leafValues>
            2.4717748165130615e-01 -9.4681644439697266e-01</leafValues></_>
        <_>
          <internalNodes>
            0 -1 77 -5.4608599748462439e-04</internalNodes>
          <leafValues>
            -9.1814982891082764e-01 2.7919831871986389e-01</leafValues></_>
        <_>
          <internalNodes>
            0 -1 72 -1.5711749438196421e-03</internalNodes>
          <leafValues>
            4.5428445935249329e-01 -5.5035299062728882e-01</leafValues></_></weakClassifiers></_>
    <!-- stage 13 -->
    <_>
      <maxWeakCount>6</maxWeakCount>
      <stageThreshold>-1.0634465217590332e+00</stageThreshold>
      <weakClassifiers>
        <_>
          <internalNodes>
            0 -1 35 4.1233827359974384e-03</internalNodes>
          <leafValues>
            -6.8316829204559326e-01 5.4716980457305908e-01</leafValues></_>
        <_>
          <internalNodes>
            0 -1 49 1.3277560472488403e-02</internalNodes>
          <leafValues>
            -4.5695525407791138e-01 6.9427675008773804e-01</leafValues></_>
        <_>
          <internalNodes>
            0 -1 80 6.6567468456923962e-04</internalNodes>
          <leafValues>
            3.3456635475158691e-01 -8.1523317098617554e-01</leafValues></_>
        <_>
          <internalNodes>
            0 -1 25 -1.6036486253142357e-02</internalNodes>
          <leafValues>
            -9.1046679019927979e-01 2.7432540059089661e-01</leafValues></_>
        <_>
          <internalNodes>
            0 -1 20 -3.5220184363424778e-03</internalNodes>
          <leafValues>
            -9.0306794643402100e-01 2.5937190651893616e-01</leafValues></_>
        <_>
          <internalNodes>
            0 -1 24 5.8313162298873067e-05</internalNodes>
          <leafValues>
            -7.6813060045242310e-01 3.7085321545600891e-01</leafValues></_></weakClassifiers></_>
    <!-- stage 14 -->
    <_>
      <maxWeakCount>4</maxWeakCount>
      <stageThreshold>-7.6430666446685791e-01</stageThreshold>
      <weakClassifiers>
        <_>
          <internalNodes>
            0 -1 32 1.9616216421127319e-02</internalNodes>
          <leafValues>
            -6.1478161811828613e-01 7.8888887166976929e-01</leafValues></_>
        <_>
          <internalNodes>
            0 -1 9 -9.8054406407754868e-06</internalNodes>
          <leafValues>
            4.4936919212341309e-01 -6.0836482048034668e-01</leafValues></_>
        <_>
          <internalNodes>
            0 -1 17 -1.9740169591386802e-05</internalNodes>
          <leafValues>
            2.3105810582637787e-01 -9.6667826175689697e-01</leafValues></_>
        <_>
          <internalNodes>
            0 -1 21 -1.9174155313521624e-03</internalNodes>
          <leafValues>
            -7.9943752288818359e-01 3.6778402328491211e-01</leafValues></_></weakClassifiers></_>
    <!-- stage 15 -->
    <_>
      <maxWeakCount>7</maxWeakCount>
      <stageThreshold>-1.0859929323196411e+00</stageThreshold>
      <weakClassifiers>
        <_>
          <internalNodes>
            0 -1 51 1.7212612554430962e-02</internalNodes>
          <leafValues>
            -5.6698822975158691e-01 8.7142854928970337e-01</leafValues></_>
        <_>
          <internalNodes>
            0 -1 14 -9.5133153081405908e-05</internalNodes>
          <leafValues>
            2.8398960828781128e-01 -8.4091389179229736e-01</leafValues></_>
        <_>
          <internalNodes>
            0 -1 71 1.1773642472689971e-04</internalNodes>
          <leafValues>
            -7.5682348012924194e-01 3.2948255538940430e-01</leafValues></_>
        <_>
          <internalNodes>
            0 -1 75 3.2241214066743851e-03</internalNodes>
          <leafValues>
            2.7526897192001343e-01 -8.6228746175765991e-01</leafValues></_>
        <_>
          <internalNodes>
            0 -1 66 -2.0043440163135529e-02</internalNodes>
          <leafValues>
            8.5957670211791992e-01 -3.6620354652404785e-01</leafValues></_>
        <_>
          <internalNodes>
            0 -1 52 1.1001743376255035e-02</internalNodes>
          <leafValues>
            -3.3112752437591553e-01 7.7042543888092041e-01</leafValues></_>
        <_>
          <internalNodes>
            0 -1 42 -1.7581183928996325e-03</internalNodes>
          <leafValues>
            4.2714163661003113e-01 -6.7849987745285034e-01</leafValues></_></weakClassifiers></_>
    <!-- stage 16 -->
    <_>
      <maxWeakCount>7</maxWeakCount>
      <stageThreshold>-1.2248872518539429e+00</stageThreshold>
      <weakClassifiers>
        <_>
          <internalNodes>
            0 -1 45 3.6972872912883759e-02</internalNodes>
          <leafValues>
            -5.9179264307022095e-01 9.5918369293212891e-01</leafValues></_>
        <_>
          <internalNodes>
            0 -1 63 3.8612841308349743e-05</internalNodes>
          <leafValues>
            -7.3483860492706299e-01 3.9038667082786560e-01</leafValues></_>
        <_>
          <internalNodes>
            0 -1 19 -1.6956176841631532e-04</internalNodes>
          <leafValues>
            3.9075791835784912e-01 -7.1759700775146484e-01</leafValues></_>
        <_>
          <internalNodes>
            0 -1 28 -1.0026539675891399e-03</internalNodes>
          <leafValues>
            -9.1106045246124268e-01 3.0720952153205872e-01</leafValues></_>
        <_>
          <internalNodes>
            0 -1 62 -9.3597400700673461e-04</internalNodes>
          <leafValues>
            5.4288095235824585e-01 -5.8956688642501831e-01</leafValues></_>
        <_>
          <internalNodes>
            0 -1 69 -1.8031571060419083e-02</internalNodes>
          <leafValues>
            9.0841346979141235e-01 -3.3755478262901306e-01</leafValues></_>
        <_>
          <internalNodes>
            0 -1 30 -4.3137092143297195e-03</internalNodes>
          <leafValues>
            -9.6057742834091187e-01 3.9985004067420959e-01</leafValues></_></weakClassifiers></_>
    <!-- stage 17 -->
    <_>
      <maxWeakCount>5</maxWeakCount>
      <stageThreshold>-1.1750175952911377e+00</stageThreshold>
      <weakClassifiers>
        <_>
          <internalNodes>
            0 -1 65 -4.4447937980294228e-03</internalNodes>
          <leafValues>
            9.0270268917083740e-01 -6.4639639854431152e-01</leafValues></_>
        <_>
          <internalNodes>
            0 -1 44 5.1994377281516790e-04</internalNodes>
          <leafValues>
            4.2279186844825745e-01 -8.9404797554016113e-01</leafValues></_>
        <_>
          <internalNodes>
            0 -1 76 -1.4417950296774507e-04</internalNodes>
          <leafValues>
            4.0982776880264282e-01 -8.7712067365646362e-01</leafValues></_>
        <_>
          <internalNodes>
            0 -1 34 3.1023137125885114e-05</internalNodes>
          <leafValues>
            -7.1973949670791626e-01 7.3027974367141724e-01</leafValues></_>
        <_>
          <internalNodes>
            0 -1 67 9.8054406407754868e-06</internalNodes>
          <leafValues>
            -6.4150136709213257e-01 7.2693771123886108e-01</leafValues></_></weakClassifiers></_>
    <!-- stage 18 -->
    <_>
      <maxWeakCount>3</maxWeakCount>
      <stageThreshold>-8.0260294675827026e-01</stageThreshold>
      <weakClassifiers>
        <_>
          <internalNodes>
            0 -1 16 -7.3047308251261711e-03</internalNodes>
          <leafValues>
            1. -7.4322730302810669e-01</leafValues></_>
        <_>
          <internalNodes>
            0 -1 79 2.2669738973490894e-04</internalNodes>
          <leafValues>
            6.2780267000198364e-01 -8.2994288206100464e-01</leafValues></_>
        <_>
          <internalNodes>
            0 -1 81 -5.9713353402912617e-04</internalNodes>
          <leafValues>
            -6.8717831373214722e-01 8.7178397178649902e-01</leafValues></_></weakClassifiers></_></stages>
  <features>
    <_>
      <rects>
        <_>
          0 0 4 36 -1.</_>
        <_>
          2 0 2 36 2.</_></rects>
      <tilted>0</tilted></_>
    <_>
      <rects>
        <_>
          0 1 36 20 -1.</_>
        <_>
          12 1 12 20 3.</_></rects>
      <tilted>0</tilted></_>
    <_>
      <rects>
        <_>
          0 3 36 33 -1.</_>
        <_>
          12 3 12 33 3.</_></rects>
      <tilted>0</tilted></_>
    <_>
      <rects>
        <_>
          0 4 2 31 -1.</_>
        <_>
          1 4 1 31 2.</_></rects>
      <tilted>0</tilted></_>
    <_>
      <rects>
        <_>
          0 4 36 32 -1.</_>
        <_>
          12 4 12 32 3.</_></rects>
      <tilted>0</tilted></_>
    <_>
      <rects>
        <_>
          0 12 4 6 -1.</_>
        <_>
          2 12 2 6 2.</_></rects>
      <tilted>0</tilted></_>
    <_>
      <rects>
        <_>
          0 14 21 22 -1.</_>
        <_>
          7 14 7 22 3.</_></rects>
      <tilted>0</tilted></_>
    <_>
      <rects>
        <_>
          0 26 36 10 -1.</_>
        <_>
          12 26 12 10 3.</_></rects>
      <tilted>0</tilted></_>
    <_>
      <rects>
        <_>
          0 34 4 2 -1.</_>
        <_>
          2 34 2 2 2.</_></rects>
      <tilted>0</tilted></_>
    <_>
      <rects>
        <_>
          0 35 2 1 -1.</_>
        <_>
          1 35 1 1 2.</_></rects>
      <tilted>0</tilted></_>
    <_>
      <rects>
        <_>
          1 25 33 11 -1.</_>
        <_>
          12 25 11 11 3.</_></rects>
      <tilted>0</tilted></_>
    <_>
      <rects>
        <_>
          2 7 24 11 -1.</_>
        <_>
          14 7 12 11 2.</_></rects>
      <tilted>0</tilted></_>
    <_>
      <rects>
        <_>
          3 9 27 24 -1.</_>
        <_>
          12 9 9 24 3.</_></rects>
      <tilted>0</tilted></_>
    <_>
      <rects>
        <_>
          5 0 27 14 -1.</_>
        <_>
          5 7 27 7 2.</_></rects>
      <tilted>0</tilted></_>
    <_>
      <rects>
        <_>
          5 5 15 2 -1.</_>
        <_>
          5 6 15 1 2.</_></rects>
      <tilted>0</tilted></_>
    <_>
      <rects>
        <_>
          5 6 1 16 -1.</_>
        <_>
          5 14 1 8 2.</_></rects>
      <tilted>0</tilted></_>
    <_>
      <rects>
        <_>
          5 16 18 2 -1.</_>
        <_>
          11 16 6 2 3.</_></rects>
      <tilted>0</tilted></_>
    <_>
      <rects>
        <_>
          6 6 11 4 -1.</_>
        <_>
          6 8 11 2 2.</_></rects>
      <tilted>0</tilted></_>
    <_>
      <rects>
        <_>
          6 8 10 6 -1.</_>
        <_>
          6 11 10 3 2.</_></rects>
      <tilted>0</tilted></_>
    <_>
      <rects>
        <_>
          6 10 6 4 -1.</_>
        <_>
          6 12 6 2 2.</_></rects>
      <tilted>0</tilted></_>
    <_>
      <rects>
        <_>
          7 1 9 13 -1.</_>
        <_>
          10 1 3 13 3.</_></rects>
      <tilted>0</tilted></_>
    <_>
      <rects>
        <_>
          7 4 5 6 -1.</_>
        <_>
          7 7 5 3 2.</_></rects>
      <tilted>0</tilted></_>
    <_>
      <rects>
        <_>
          7 9 13 24 -1.</_>
        <_>
          7 17 13 8 3.</_></rects>
      <tilted>0</tilted></_>
    <_>
      <rects>
        <_>
          7 20 21 16 -1.</_>
        <_>
          7 28 21 8 2.</_></rects>
      <tilted>0</tilted></_>
    <_>
      <rects>
        <_>
          7 26 10 2 -1.</_>
        <_>
          7 27 10 1 2.</_></rects>
      <tilted>0</tilted></_>
    <_>
      <rects>
        <_>
          8 18 26 18 -1.</_>
        <_>
          21 18 13 18 2.</_></rects>
      <tilted>0</tilted></_>
    <_>
      <rects>
        <_>
          8 25 21 10 -1.</_>
        <_>
          15 25 7 10 3.</_></rects>
      <tilted>0</tilted></_>
    <_>
      <rects>
        <_>
          9 3 19 6 -1.</_>
        <_>
          9 6 19 3 2.</_></rects>
      <tilted>0</tilted></_>
    <_>
      <rects>
        <_>
          9 5 12 2 -1.</_>
        <_>
          13 5 4 2 3.</_></rects>
      <tilted>0</tilted></_>
    <_>
      <rects>
        <_>
          9 7 27 20 -1.</_>
        <_>
          18 7 9 20 3.</_></rects>
      <tilted>0</tilted></_>
    <_>
      <rects>
        <_>
          9 7 20 2 -1.</_>
        <_>
          19 7 10 2 2.</_></rects>
      <tilted>0</tilted></_>
    <_>
      <rects>
        <_>
          10 2 18 7 -1.</_>
        <_>
          16 2 6 7 3.</_></rects>
      <tilted>0</tilted></_>
    <_>
      <rects>
        <_>
          10 7 8 18 -1.</_>
        <_>
          10 7 4 9 2.</_>
        <_>
          14 16 4 9 2.</_></rects>
      <tilted>0</tilted></_>
    <_>
      <rects>
        <_>
          10 16 15 9 -1.</_>
        <_>
          15 16 5 9 3.</_></rects>
      <tilted>0</tilted></_>
    <_>
      <rects>
        <_>
          10 22 1 6 -1.</_>
        <_>
          10 25 1 3 2.</_></rects>
      <tilted>0</tilted></_>
    <_>
      <rects>
        <_>
          10 29 10 6 -1.</_>
        <_>
          10 31 10 2 3.</_></rects>
      <tilted>0</tilted></_>
    <_>
      <rects>
        <_>
          11 0 12 4 -1.</_>
        <_>
          11 2 12 2 2.</_></rects>
      <tilted>0</tilted></_>
    <_>
      <rects>
        <_>
          11 5 15 8 -1.</_>
        <_>
          16 5 5 8 3.</_></rects>
      <tilted>0</tilted></_>
    <_>
      <rects>
        <_>
          11 12 4 15 -1.</_>
        <_>
          11 17 4 5 3.</_></rects>
      <tilted>0</tilted></_>
    <_>
      <rects>
        <_>
          11 16 12 9 -1.</_>
        <_>
          11 19 12 3 3.</_></rects>
      <tilted>0</tilted></_>
    <_>
      <rects>
        <_>
          11 17 12 7 -1.</_>
        <_>
          15 17 4 7 3.</_></rects>
      <tilted>0</tilted></_>
    <_>
      <rects>
        <_>
          12 0 24 19 -1.</_>
        <_>
          24 0 12 19 2.</_></rects>
      <tilted>0</tilted></_>
    <_>
      <rects>
        <_>
          12 0 13 4 -1.</_>
        <_>
          12 2 13 2 2.</_></rects>
      <tilted>0</tilted></_>
    <_>
      <rects>
        <_>
          12 2 6 7 -1.</_>
        <_>
          14 2 2 7 3.</_></rects>
      <tilted>0</tilted></_>
    <_>
      <rects>
        <_>
          12 7 12 1 -1.</_>
        <_>
          18 7 6 1 2.</_></rects>
      <tilted>0</tilted></_>
    <_>
      <rects>
        <_>
          12 10 12 15 -1.</_>
        <_>
          16 10 4 15 3.</_></rects>
      <tilted>0</tilted></_>
    <_>
      <rects>
        <_>
          12 19 13 9 -1.</_>
        <_>
          12 22 13 3 3.</_></rects>
      <tilted>0</tilted></_>
    <_>
      <rects>
        <_>
          12 25 10 9 -1.</_>
        <_>
          12 28 10 3 3.</_></rects>
      <tilted>0</tilted></_>
    <_>
      <rects>
        <_>
          12 27 4 8 -1.</_>
        <_>
          14 27 2 8 2.</_></rects>
      <tilted>0</tilted></_>
    <_>
      <rects>
        <_>
          12 29 24 6 -1.</_>
        <_>
          12 29 12 3 2.</_>
        <_>
          24 32 12 3 2.</_></rects>
      <tilted>0</tilted></_>
    <_>
      <rects>
        <_>
          13 5 4 3 -1.</_>
        <_>
          15 5 2 3 2.</_></rects>
      <tilted>0</tilted></_>
    <_>
      <rects>
        <_>
          13 15 6 10 -1.</_>
        <_>
          16 15 3 10 2.</_></rects>
      <tilted>0</tilted></_>
    <_>
      <rects>
        <_>
          13 15 15 10 -1.</_>
        <_>
          18 15 5 10 3.</_></rects>
      <tilted>0</tilted></_>
    <_>
      <rects>
        <_>
          13 26 8 9 -1.</_>
        <_>
          13 29 8 3 3.</_></rects>
      <tilted>0</tilted></_>
    <_>
      <rects>
        <_>
          14 0 1 6 -1.</_>
        <_>
          14 3 1 3 2.</_></rects>
      <tilted>0</tilted></_>
    <_>
      <rects>
        <_>
          14 2 4 7 -1.</_>
        <_>
          16 2 2 7 2.</_></rects>
      <tilted>0</tilted></_>
    <_>
      <rects>
        <_>
          14 5 5 6 -1.</_>
        <_>
          14 8 5 3 2.</_></rects>
      <tilted>0</tilted></_>
    <_>
      <rects>
        <_>
          14 13 8 6 -1.</_>
        <_>
          14 15 8 2 3.</_></rects>
      <tilted>0</tilted></_>
    <_>
      <rects>
        <_>
          14 15 9 12 -1.</_>
        <_>
          17 15 3 12 3.</_></rects>
      <tilted>0</tilted></_>
    <_>
      <rects>
        <_>
          14 15 12 10 -1.</_>
        <_>
          18 15 4 10 3.</_></rects>
      <tilted>0</tilted></_>
    <_>
      <rects>
        <_>
          14 16 8 9 -1.</_>
        <_>
          14 19 8 3 3.</_></rects>
      <tilted>0</tilted></_>
    <_>
      <rects>
        <_>
          14 16 9 6 -1.</_>
        <_>
          14 18 9 2 3.</_></rects>
      <tilted>0</tilted></_>
    <_>
      <rects>
        <_>
          14 19 6 4 -1.</_>
        <_>
          16 19 2 4 3.</_></rects>
      <tilted>0</tilted></_>
    <_>
      <rects>
        <_>
          14 26 1 4 -1.</_>
        <_>
          14 28 1 2 2.</_></rects>
      <tilted>0</tilted></_>
    <_>
      <rects>
        <_>
          15 6 11 10 -1.</_>
        <_>
          15 11 11 5 2.</_></rects>
      <tilted>0</tilted></_>
    <_>
      <rects>
        <_>
          15 16 18 4 -1.</_>
        <_>
          15 16 9 2 2.</_>
        <_>
          24 18 9 2 2.</_></rects>
      <tilted>0</tilted></_>
    <_>
      <rects>
        <_>
          15 17 9 9 -1.</_>
        <_>
          18 17 3 9 3.</_></rects>
      <tilted>0</tilted></_>
    <_>
      <rects>
        <_>
          15 21 2 2 -1.</_>
        <_>
          15 22 2 1 2.</_></rects>
      <tilted>0</tilted></_>
    <_>
      <rects>
        <_>
          16 2 2 14 -1.</_>
        <_>
          16 9 2 7 2.</_></rects>
      <tilted>0</tilted></_>
    <_>
      <rects>
        <_>
          16 14 9 12 -1.</_>
        <_>
          19 14 3 12 3.</_></rects>
      <tilted>0</tilted></_>
    <_>
      <rects>
        <_>
          17 0 3 9 -1.</_>
        <_>
          17 3 3 3 3.</_></rects>
      <tilted>0</tilted></_>
    <_>
      <rects>
        <_>
          17 26 6 2 -1.</_>
        <_>
          17 27 6 1 2.</_></rects>
      <tilted>0</tilted></_>
    <_>
      <rects>
        <_>
          18 14 1 18 -1.</_>
        <_>
          18 20 1 6 3.</_></rects>
      <tilted>0</tilted></_>
    <_>
      <rects>
        <_>
          18 24 12 6 -1.</_>
        <_>
          18 24 6 3 2.</_>
        <_>
          24 27 6 3 2.</_></rects>
      <tilted>0</tilted></_>
    <_>
      <rects>
        <_>
          19 14 2 18 -1.</_>
        <_>
          19 20 2 6 3.</_></rects>
      <tilted>0</tilted></_>
    <_>
      <rects>
        <_>
          20 1 15 7 -1.</_>
        <_>
          25 1 5 7 3.</_></rects>
      <tilted>0</tilted></_>
    <_>
      <rects>
        <_>
          21 4 1 6 -1.</_>
        <_>
          21 7 1 3 2.</_></rects>
      <tilted>0</tilted></_>
    <_>
      <rects>
        <_>
          22 3 6 11 -1.</_>
        <_>
          25 3 3 11 2.</_></rects>
      <tilted>0</tilted></_>
    <_>
      <rects>
        <_>
          22 12 1 18 -1.</_>
        <_>
          22 18 1 6 3.</_></rects>
      <tilted>0</tilted></_>
    <_>
      <rects>
        <_>
          23 6 6 3 -1.</_>
        <_>
          23 7 6 1 3.</_></rects>
      <tilted>0</tilted></_>
    <_>
      <rects>
        <_>
          27 1 2 10 -1.</_>
        <_>
          28 1 1 10 2.</_></rects>
      <tilted>0</tilted></_>
    <_>
      <rects>
        <_>
          27 17 6 6 -1.</_>
        <_>
          29 17 2 6 3.</_></rects>
      <tilted>0</tilted></_>
    <_>
      <rects>
        <_>
          30 7 6 29 -1.</_>
        <_>
          33 7 3 29 2.</_></rects>
      <tilted>0</tilted></_>
    <_>
      <rects>
        <_>
          32 6 4 30 -1.</_>
        <_>
          34 6 2 30 2.</_></rects>
      <tilted>0</tilted></_>
    <_>
      <rects>
        <_>
          32 8 4 28 -1.</_>
        <_>
          34 8 2 28 2.</_></rects>
      <tilted>0</tilted></_></features></cascade>
</opencv_storage>
